digraph Tree {
0 [label="X[10] <= 10.5250\ngini = 0.650633584659\nsamples = 1119", shape="box"] ;
1 [label="X[9] <= 0.5350\ngini = 0.548548624239\nsamples = 690", shape="box"] ;
0 -> 1 ;
2 [label="X[3] <= 9.3000\ngini = 0.35669920142\nsamples = 161", shape="box"] ;
1 -> 2 ;
3 [label="X[3] <= 1.2500\ngini = 0.343419959653\nsamples = 159", shape="box"] ;
2 -> 3 ;
4 [label="X[4] <= 0.1660\ngini = 0.5\nsamples = 2", shape="box"] ;
3 -> 4 ;
5 [label="gini = 0.0000\nsamples = 1\nvalue = [ 0.  0.  0.  0.  1.  0.]", shape="box"] ;
4 -> 5 ;
6 [label="gini = 0.0000\nsamples = 1\nvalue = [ 1.  0.  0.  0.  0.  0.]", shape="box"] ;
4 -> 6 ;
7 [label="X[8] <= 3.5450\ngini = 0.326666396203\nsamples = 157", shape="box"] ;
3 -> 7 ;
8 [label="X[6] <= 63.5000\ngini = 0.305694391046\nsamples = 153", shape="box"] ;
7 -> 8 ;
9 [label="X[8] <= 3.1950\ngini = 0.416001849925\nsamples = 93", shape="box"] ;
8 -> 9 ;
10 [label="X[1] <= 0.8075\ngini = 0.0798611111111\nsamples = 24", shape="box"] ;
9 -> 10 ;
11 [label="gini = 0.0000\nsamples = 23\nvalue = [  0.   0.  23.   0.   0.   0.]", shape="box"] ;
10 -> 11 ;
12 [label="gini = 0.0000\nsamples = 1\nvalue = [ 0.  0.  0.  1.  0.  0.]", shape="box"] ;
10 -> 12 ;
13 [label="X[1] <= 0.5875\ngini = 0.499894980046\nsamples = 69", shape="box"] ;
9 -> 13 ;
14 [label="X[9] <= 0.4750\ngini = 0.614540466392\nsamples = 27", shape="box"] ;
13 -> 14 ;
15 [label="X[9] <= 0.4350\ngini = 0.21875\nsamples = 8", shape="box"] ;
14 -> 15 ;
16 [label="gini = 0.0000\nsamples = 1\nvalue = [ 0.  1.  0.  0.  0.  0.]", shape="box"] ;
15 -> 16 ;
17 [label="gini = 0.0000\nsamples = 7\nvalue = [ 0.  0.  7.  0.  0.  0.]", shape="box"] ;
15 -> 17 ;
18 [label="X[0] <= 9.4000\ngini = 0.570637119114\nsamples = 19", shape="box"] ;
14 -> 18 ;
19 [label="X[0] <= 7.5000\ngini = 0.4609375\nsamples = 16", shape="box"] ;
18 -> 19 ;
20 [label="X[1] <= 0.4400\ngini = 0.59375\nsamples = 8", shape="box"] ;
19 -> 20 ;
21 [label="gini = 0.0000\nsamples = 2\nvalue = [ 0.  0.  0.  2.  0.  0.]", shape="box"] ;
20 -> 21 ;
22 [label="X[10] <= 9.2500\ngini = 0.5\nsamples = 6", shape="box"] ;
20 -> 22 ;
23 [label="X[7] <= 0.9962\ngini = 0.5\nsamples = 2", shape="box"] ;
22 -> 23 ;
24 [label="gini = 0.0000\nsamples = 1\nvalue = [ 0.  1.  0.  0.  0.  0.]", shape="box"] ;
23 -> 24 ;
25 [label="gini = 0.0000\nsamples = 1\nvalue = [ 0.  0.  0.  1.  0.  0.]", shape="box"] ;
23 -> 25 ;
26 [label="gini = 0.0000\nsamples = 4\nvalue = [ 0.  0.  4.  0.  0.  0.]", shape="box"] ;
22 -> 26 ;
27 [label="gini = 0.0000\nsamples = 8\nvalue = [ 0.  0.  0.  8.  0.  0.]", shape="box"] ;
19 -> 27 ;
28 [label="X[8] <= 3.2200\ngini = 0.444444444444\nsamples = 3", shape="box"] ;
18 -> 28 ;
29 [label="gini = 0.0000\nsamples = 1\nvalue = [ 0.  0.  1.  0.  0.  0.]", shape="box"] ;
28 -> 29 ;
30 [label="gini = 0.0000\nsamples = 2\nvalue = [ 0.  2.  0.  0.  0.  0.]", shape="box"] ;
28 -> 30 ;
31 [label="X[2] <= 0.2350\ngini = 0.316326530612\nsamples = 42", shape="box"] ;
13 -> 31 ;
32 [label="X[0] <= 8.7500\ngini = 0.21854912764\nsamples = 33", shape="box"] ;
31 -> 32 ;
33 [label="X[0] <= 6.2500\ngini = 0.169921875\nsamples = 32", shape="box"] ;
32 -> 33 ;
34 [label="gini = 0.0000\nsamples = 1\nvalue = [ 0.  1.  0.  0.  0.  0.]", shape="box"] ;
33 -> 34 ;
35 [label="X[2] <= 0.0100\ngini = 0.120707596254\nsamples = 31", shape="box"] ;
33 -> 35 ;
36 [label="X[0] <= 8.1500\ngini = 0.345679012346\nsamples = 9", shape="box"] ;
35 -> 36 ;
37 [label="X[3] <= 1.9500\ngini = 0.21875\nsamples = 8", shape="box"] ;
36 -> 37 ;
38 [label="X[9] <= 0.4800\ngini = 0.5\nsamples = 2", shape="box"] ;
37 -> 38 ;
39 [label="gini = 0.0000\nsamples = 1\nvalue = [ 0.  0.  1.  0.  0.  0.]", shape="box"] ;
38 -> 39 ;
40 [label="gini = 0.0000\nsamples = 1\nvalue = [ 0.  1.  0.  0.  0.  0.]", shape="box"] ;
38 -> 40 ;
41 [label="gini = 0.0000\nsamples = 6\nvalue = [ 0.  0.  6.  0.  0.  0.]", shape="box"] ;
37 -> 41 ;
42 [label="gini = 0.0000\nsamples = 1\nvalue = [ 0.  1.  0.  0.  0.  0.]", shape="box"] ;
36 -> 42 ;
43 [label="gini = 0.0000\nsamples = 22\nvalue = [  0.   0.  22.   0.   0.   0.]", shape="box"] ;
35 -> 43 ;
44 [label="gini = 0.0000\nsamples = 1\nvalue = [ 0.  0.  0.  1.  0.  0.]", shape="box"] ;
32 -> 44 ;
45 [label="X[8] <= 3.3150\ngini = 0.493827160494\nsamples = 9", shape="box"] ;
31 -> 45 ;
46 [label="X[8] <= 3.2550\ngini = 0.32\nsamples = 5", shape="box"] ;
45 -> 46 ;
47 [label="gini = 0.0000\nsamples = 1\nvalue = [ 0.  0.  1.  0.  0.  0.]", shape="box"] ;
46 -> 47 ;
48 [label="gini = 0.0000\nsamples = 4\nvalue = [ 0.  4.  0.  0.  0.  0.]", shape="box"] ;
46 -> 48 ;
49 [label="gini = 0.0000\nsamples = 4\nvalue = [ 0.  0.  4.  0.  0.  0.]", shape="box"] ;
45 -> 49 ;
50 [label="X[4] <= 0.0935\ngini = 0.095\nsamples = 60", shape="box"] ;
8 -> 50 ;
51 [label="gini = 0.0000\nsamples = 47\nvalue = [  0.   0.  47.   0.   0.   0.]", shape="box"] ;
50 -> 51 ;
52 [label="X[2] <= 0.1950\ngini = 0.355029585799\nsamples = 13", shape="box"] ;
50 -> 52 ;
53 [label="X[2] <= 0.0600\ngini = 0.48\nsamples = 5", shape="box"] ;
52 -> 53 ;
54 [label="gini = 0.0000\nsamples = 2\nvalue = [ 0.  0.  2.  0.  0.  0.]", shape="box"] ;
53 -> 54 ;
55 [label="gini = 0.0000\nsamples = 3\nvalue = [ 0.  0.  0.  3.  0.  0.]", shape="box"] ;
53 -> 55 ;
56 [label="gini = 0.0000\nsamples = 8\nvalue = [ 0.  0.  8.  0.  0.  0.]", shape="box"] ;
52 -> 56 ;
57 [label="X[1] <= 0.6025\ngini = 0.625\nsamples = 4", shape="box"] ;
7 -> 57 ;
58 [label="gini = 0.0000\nsamples = 2\nvalue = [ 0.  0.  0.  2.  0.  0.]", shape="box"] ;
57 -> 58 ;
59 [label="X[8] <= 3.6650\ngini = 0.5\nsamples = 2", shape="box"] ;
57 -> 59 ;
60 [label="gini = 0.0000\nsamples = 1\nvalue = [ 0.  0.  1.  0.  0.  0.]", shape="box"] ;
59 -> 60 ;
61 [label="gini = 0.0000\nsamples = 1\nvalue = [ 0.  1.  0.  0.  0.  0.]", shape="box"] ;
59 -> 61 ;
62 [label="gini = 0.0000\nsamples = 2\nvalue = [ 0.  0.  0.  2.  0.  0.]", shape="box"] ;
2 -> 62 ;
63 [label="X[6] <= 81.5000\ngini = 0.570023692025\nsamples = 529", shape="box"] ;
1 -> 63 ;
64 [label="X[1] <= 0.3650\ngini = 0.588035988187\nsamples = 418", shape="box"] ;
63 -> 64 ;
65 [label="X[4] <= 0.1045\ngini = 0.543905325444\nsamples = 65", shape="box"] ;
64 -> 65 ;
66 [label="X[0] <= 14.6500\ngini = 0.504165546896\nsamples = 61", shape="box"] ;
65 -> 66 ;
67 [label="X[10] <= 10.4500\ngini = 0.479172651537\nsamples = 59", shape="box"] ;
66 -> 67 ;
68 [label="X[2] <= 0.4150\ngini = 0.434948979592\nsamples = 56", shape="box"] ;
67 -> 68 ;
69 [label="X[7] <= 0.9979\ngini = 0.601134215501\nsamples = 23", shape="box"] ;
68 -> 69 ;
70 [label="X[7] <= 0.9962\ngini = 0.504155124654\nsamples = 19", shape="box"] ;
69 -> 70 ;
71 [label="X[4] <= 0.0730\ngini = 0.75\nsamples = 8", shape="box"] ;
70 -> 71 ;
72 [label="X[10] <= 10.0500\ngini = 0.72\nsamples = 5", shape="box"] ;
71 -> 72 ;
73 [label="X[9] <= 0.6200\ngini = 0.666666666667\nsamples = 3", shape="box"] ;
72 -> 73 ;
74 [label="gini = 0.0000\nsamples = 1\nvalue = [ 0.  1.  0.  0.  0.  0.]", shape="box"] ;
73 -> 74 ;
75 [label="X[4] <= 0.0635\ngini = 0.5\nsamples = 2", shape="box"] ;
73 -> 75 ;
76 [label="gini = 0.0000\nsamples = 1\nvalue = [ 0.  0.  0.  0.  0.  1.]", shape="box"] ;
75 -> 76 ;
77 [label="gini = 0.0000\nsamples = 1\nvalue = [ 0.  0.  0.  0.  1.  0.]", shape="box"] ;
75 -> 77 ;
78 [label="gini = 0.0000\nsamples = 2\nvalue = [ 0.  0.  2.  0.  0.  0.]", shape="box"] ;
72 -> 78 ;
79 [label="gini = 0.0000\nsamples = 3\nvalue = [ 0.  0.  0.  3.  0.  0.]", shape="box"] ;
71 -> 79 ;
80 [label="X[0] <= 9.0000\ngini = 0.165289256198\nsamples = 11", shape="box"] ;
70 -> 80 ;
81 [label="gini = 0.0000\nsamples = 9\nvalue = [ 0.  0.  0.  9.  0.  0.]", shape="box"] ;
80 -> 81 ;
82 [label="X[9] <= 0.8800\ngini = 0.5\nsamples = 2", shape="box"] ;
80 -> 82 ;
83 [label="gini = 0.0000\nsamples = 1\nvalue = [ 0.  0.  0.  0.  1.  0.]", shape="box"] ;
82 -> 83 ;
84 [label="gini = 0.0000\nsamples = 1\nvalue = [ 0.  0.  0.  1.  0.  0.]", shape="box"] ;
82 -> 84 ;
85 [label="gini = 0.0000\nsamples = 4\nvalue = [ 0.  0.  4.  0.  0.  0.]", shape="box"] ;
69 -> 85 ;
86 [label="X[9] <= 0.5600\ngini = 0.2681359045\nsamples = 33", shape="box"] ;
68 -> 86 ;
87 [label="gini = 0.0000\nsamples = 1\nvalue = [ 0.  0.  1.  0.  0.  0.]", shape="box"] ;
86 -> 87 ;
88 [label="X[9] <= 1.2700\ngini = 0.224609375\nsamples = 32", shape="box"] ;
86 -> 88 ;
89 [label="X[10] <= 10.1500\ngini = 0.178980228928\nsamples = 31", shape="box"] ;
88 -> 89 ;
90 [label="X[5] <= 3.5000\ngini = 0.0739644970414\nsamples = 26", shape="box"] ;
89 -> 90 ;
91 [label="X[6] <= 11.5000\ngini = 0.5\nsamples = 2", shape="box"] ;
90 -> 91 ;
92 [label="gini = 0.0000\nsamples = 1\nvalue = [ 0.  0.  0.  1.  0.  0.]", shape="box"] ;
91 -> 92 ;
93 [label="gini = 0.0000\nsamples = 1\nvalue = [ 0.  0.  1.  0.  0.  0.]", shape="box"] ;
91 -> 93 ;
94 [label="gini = 0.0000\nsamples = 24\nvalue = [  0.   0.   0.  24.   0.   0.]", shape="box"] ;
90 -> 94 ;
95 [label="X[5] <= 13.5000\ngini = 0.48\nsamples = 5", shape="box"] ;
89 -> 95 ;
96 [label="X[4] <= 0.0530\ngini = 0.444444444444\nsamples = 3", shape="box"] ;
95 -> 96 ;
97 [label="gini = 0.0000\nsamples = 1\nvalue = [ 0.  0.  0.  1.  0.  0.]", shape="box"] ;
96 -> 97 ;
98 [label="gini = 0.0000\nsamples = 2\nvalue = [ 0.  0.  0.  0.  2.  0.]", shape="box"] ;
96 -> 98 ;
99 [label="gini = 0.0000\nsamples = 2\nvalue = [ 0.  0.  0.  2.  0.  0.]", shape="box"] ;
95 -> 99 ;
100 [label="gini = 0.0000\nsamples = 1\nvalue = [ 0.  0.  0.  0.  1.  0.]", shape="box"] ;
88 -> 100 ;
101 [label="X[3] <= 1.9000\ngini = 0.444444444444\nsamples = 3", shape="box"] ;
67 -> 101 ;
102 [label="gini = 0.0000\nsamples = 1\nvalue = [ 0.  0.  1.  0.  0.  0.]", shape="box"] ;
101 -> 102 ;
103 [label="gini = 0.0000\nsamples = 2\nvalue = [ 0.  0.  0.  0.  2.  0.]", shape="box"] ;
101 -> 103 ;
104 [label="gini = 0.0000\nsamples = 2\nvalue = [ 0.  0.  0.  0.  2.  0.]", shape="box"] ;
66 -> 104 ;
105 [label="X[7] <= 0.9976\ngini = 0.375\nsamples = 4", shape="box"] ;
65 -> 105 ;
106 [label="gini = 0.0000\nsamples = 1\nvalue = [ 0.  0.  0.  0.  1.  0.]", shape="box"] ;
105 -> 106 ;
107 [label="gini = 0.0000\nsamples = 3\nvalue = [ 0.  0.  3.  0.  0.  0.]", shape="box"] ;
105 -> 107 ;
108 [label="X[8] <= 3.5350\ngini = 0.573987432689\nsamples = 353", shape="box"] ;
64 -> 108 ;
109 [label="X[10] <= 9.0500\ngini = 0.569821047477\nsamples = 329", shape="box"] ;
108 -> 109 ;
110 [label="X[2] <= 0.5650\ngini = 0.21875\nsamples = 16", shape="box"] ;
109 -> 110 ;
111 [label="X[3] <= 1.7500\ngini = 0.124444444444\nsamples = 15", shape="box"] ;
110 -> 111 ;
112 [label="gini = 0.0000\nsamples = 1\nvalue = [ 0.  0.  1.  0.  0.  0.]", shape="box"] ;
111 -> 112 ;
113 [label="gini = 0.0000\nsamples = 14\nvalue = [  0.   0.   0.  14.   0.   0.]", shape="box"] ;
111 -> 113 ;
114 [label="gini = 0.0000\nsamples = 1\nvalue = [ 0.  0.  1.  0.  0.  0.]", shape="box"] ;
110 -> 114 ;
115 [label="X[10] <= 9.8500\ngini = 0.572078922925\nsamples = 313", shape="box"] ;
109 -> 115 ;
116 [label="X[9] <= 0.6450\ngini = 0.526566839754\nsamples = 182", shape="box"] ;
115 -> 116 ;
117 [label="X[3] <= 1.6500\ngini = 0.463597340291\nsamples = 109", shape="box"] ;
116 -> 117 ;
118 [label="gini = 0.0000\nsamples = 13\nvalue = [  0.   0.  13.   0.   0.   0.]", shape="box"] ;
117 -> 118 ;
119 [label="X[0] <= 7.0500\ngini = 0.501736111111\nsamples = 96", shape="box"] ;
117 -> 119 ;
120 [label="X[5] <= 7.0000\ngini = 0.549382716049\nsamples = 18", shape="box"] ;
119 -> 120 ;
121 [label="gini = 0.0000\nsamples = 3\nvalue = [ 0.  0.  3.  0.  0.  0.]", shape="box"] ;
120 -> 121 ;
122 [label="X[1] <= 0.5750\ngini = 0.524444444444\nsamples = 15", shape="box"] ;
120 -> 122 ;
123 [label="X[4] <= 0.0665\ngini = 0.32\nsamples = 10", shape="box"] ;
122 -> 123 ;
124 [label="gini = 0.0000\nsamples = 1\nvalue = [ 0.  0.  1.  0.  0.  0.]", shape="box"] ;
123 -> 124 ;
125 [label="X[5] <= 21.5000\ngini = 0.197530864198\nsamples = 9", shape="box"] ;
123 -> 125 ;
126 [label="gini = 0.0000\nsamples = 8\nvalue = [ 0.  0.  0.  8.  0.  0.]", shape="box"] ;
125 -> 126 ;
127 [label="gini = 0.0000\nsamples = 1\nvalue = [ 0.  0.  1.  0.  0.  0.]", shape="box"] ;
125 -> 127 ;
128 [label="X[7] <= 0.9959\ngini = 0.56\nsamples = 5", shape="box"] ;
122 -> 128 ;
129 [label="X[7] <= 0.9958\ngini = 0.5\nsamples = 2", shape="box"] ;
128 -> 129 ;
130 [label="gini = 0.0000\nsamples = 1\nvalue = [ 0.  1.  0.  0.  0.  0.]", shape="box"] ;
129 -> 130 ;
131 [label="gini = 0.0000\nsamples = 1\nvalue = [ 0.  0.  0.  1.  0.  0.]", shape="box"] ;
129 -> 131 ;
132 [label="gini = 0.0000\nsamples = 3\nvalue = [ 0.  0.  3.  0.  0.  0.]", shape="box"] ;
128 -> 132 ;
133 [label="X[6] <= 78.0000\ngini = 0.465154503616\nsamples = 78", shape="box"] ;
119 -> 133 ;
134 [label="X[4] <= 0.0905\ngini = 0.448407202216\nsamples = 76", shape="box"] ;
133 -> 134 ;
135 [label="X[5] <= 6.5000\ngini = 0.387222222222\nsamples = 60", shape="box"] ;
134 -> 135 ;
136 [label="X[5] <= 5.5000\ngini = 0.489795918367\nsamples = 7", shape="box"] ;
135 -> 136 ;
137 [label="gini = 0.0000\nsamples = 3\nvalue = [ 0.  0.  3.  0.  0.  0.]", shape="box"] ;
136 -> 137 ;
138 [label="gini = 0.0000\nsamples = 4\nvalue = [ 0.  0.  0.  4.  0.  0.]", shape="box"] ;
136 -> 138 ;
139 [label="X[1] <= 0.4050\ngini = 0.329654681381\nsamples = 53", shape="box"] ;
135 -> 139 ;
140 [label="X[2] <= 0.3500\ngini = 0.5\nsamples = 6", shape="box"] ;
139 -> 140 ;
141 [label="gini = 0.0000\nsamples = 3\nvalue = [ 0.  0.  0.  3.  0.  0.]", shape="box"] ;
140 -> 141 ;
142 [label="gini = 0.0000\nsamples = 3\nvalue = [ 0.  0.  3.  0.  0.  0.]", shape="box"] ;
140 -> 142 ;
143 [label="X[1] <= 0.9650\ngini = 0.269805341784\nsamples = 47", shape="box"] ;
139 -> 143 ;
144 [label="X[0] <= 12.4500\ngini = 0.238185255198\nsamples = 46", shape="box"] ;
143 -> 144 ;
145 [label="X[3] <= 2.1500\ngini = 0.205432098765\nsamples = 45", shape="box"] ;
144 -> 145 ;
146 [label="X[9] <= 0.5450\ngini = 0.432132963989\nsamples = 19", shape="box"] ;
145 -> 146 ;
147 [label="X[8] <= 3.3550\ngini = 0.444444444444\nsamples = 3", shape="box"] ;
146 -> 147 ;
148 [label="gini = 0.0000\nsamples = 2\nvalue = [ 0.  0.  0.  2.  0.  0.]", shape="box"] ;
147 -> 148 ;
149 [label="gini = 0.0000\nsamples = 1\nvalue = [ 0.  0.  1.  0.  0.  0.]", shape="box"] ;
147 -> 149 ;
150 [label="X[3] <= 2.0500\ngini = 0.3203125\nsamples = 16", shape="box"] ;
146 -> 150 ;
151 [label="X[7] <= 0.9969\ngini = 0.231111111111\nsamples = 15", shape="box"] ;
150 -> 151 ;
152 [label="X[7] <= 0.9968\ngini = 0.444444444444\nsamples = 6", shape="box"] ;
151 -> 152 ;
153 [label="gini = 0.0000\nsamples = 4\nvalue = [ 0.  0.  4.  0.  0.  0.]", shape="box"] ;
152 -> 153 ;
154 [label="gini = 0.0000\nsamples = 2\nvalue = [ 0.  0.  0.  0.  2.  0.]", shape="box"] ;
152 -> 154 ;
155 [label="gini = 0.0000\nsamples = 9\nvalue = [ 0.  0.  9.  0.  0.  0.]", shape="box"] ;
151 -> 155 ;
156 [label="gini = 0.0000\nsamples = 1\nvalue = [ 0.  1.  0.  0.  0.  0.]", shape="box"] ;
150 -> 156 ;
157 [label="gini = 0.0000\nsamples = 26\nvalue = [  0.   0.  26.   0.   0.   0.]", shape="box"] ;
145 -> 157 ;
158 [label="gini = 0.0000\nsamples = 1\nvalue = [ 0.  1.  0.  0.  0.  0.]", shape="box"] ;
144 -> 158 ;
159 [label="gini = 0.0000\nsamples = 1\nvalue = [ 1.  0.  0.  0.  0.  0.]", shape="box"] ;
143 -> 159 ;
160 [label="X[7] <= 0.9965\ngini = 0.5546875\nsamples = 16", shape="box"] ;
134 -> 160 ;
161 [label="gini = 0.0000\nsamples = 5\nvalue = [ 0.  0.  5.  0.  0.  0.]", shape="box"] ;
160 -> 161 ;
162 [label="X[10] <= 9.5500\ngini = 0.512396694215\nsamples = 11", shape="box"] ;
160 -> 162 ;
163 [label="X[1] <= 0.5200\ngini = 0.21875\nsamples = 8", shape="box"] ;
162 -> 163 ;
164 [label="X[4] <= 0.1640\ngini = 0.5\nsamples = 2", shape="box"] ;
163 -> 164 ;
165 [label="gini = 0.0000\nsamples = 1\nvalue = [ 0.  0.  1.  0.  0.  0.]", shape="box"] ;
164 -> 165 ;
166 [label="gini = 0.0000\nsamples = 1\nvalue = [ 0.  0.  0.  1.  0.  0.]", shape="box"] ;
164 -> 166 ;
167 [label="gini = 0.0000\nsamples = 6\nvalue = [ 0.  0.  0.  6.  0.  0.]", shape="box"] ;
163 -> 167 ;
168 [label="X[8] <= 3.2600\ngini = 0.444444444444\nsamples = 3", shape="box"] ;
162 -> 168 ;
169 [label="gini = 0.0000\nsamples = 1\nvalue = [ 0.  0.  0.  0.  1.  0.]", shape="box"] ;
168 -> 169 ;
170 [label="gini = 0.0000\nsamples = 2\nvalue = [ 0.  0.  2.  0.  0.  0.]", shape="box"] ;
168 -> 170 ;
171 [label="gini = 0.0000\nsamples = 2\nvalue = [ 0.  0.  0.  2.  0.  0.]", shape="box"] ;
133 -> 171 ;
172 [label="X[7] <= 0.9972\ngini = 0.515293676112\nsamples = 73", shape="box"] ;
116 -> 172 ;
173 [label="X[6] <= 72.5000\ngini = 0.491083676269\nsamples = 27", shape="box"] ;
172 -> 173 ;
174 [label="X[3] <= 2.1500\ngini = 0.434027777778\nsamples = 24", shape="box"] ;
173 -> 174 ;
175 [label="X[10] <= 9.1500\ngini = 0.367768595041\nsamples = 22", shape="box"] ;
174 -> 175 ;
176 [label="gini = 0.0000\nsamples = 2\nvalue = [ 0.  0.  0.  2.  0.  0.]", shape="box"] ;
175 -> 176 ;
177 [label="X[4] <= 0.0710\ngini = 0.265\nsamples = 20", shape="box"] ;
175 -> 177 ;
178 [label="X[1] <= 0.5950\ngini = 0.64\nsamples = 5", shape="box"] ;
177 -> 178 ;
179 [label="X[3] <= 1.9500\ngini = 0.444444444444\nsamples = 3", shape="box"] ;
178 -> 179 ;
180 [label="gini = 0.0000\nsamples = 2\nvalue = [ 0.  0.  2.  0.  0.  0.]", shape="box"] ;
179 -> 180 ;
181 [label="gini = 0.0000\nsamples = 1\nvalue = [ 0.  0.  0.  0.  1.  0.]", shape="box"] ;
179 -> 181 ;
182 [label="gini = 0.0000\nsamples = 2\nvalue = [ 0.  0.  0.  2.  0.  0.]", shape="box"] ;
178 -> 182 ;
183 [label="gini = 0.0000\nsamples = 15\nvalue = [  0.   0.  15.   0.   0.   0.]", shape="box"] ;
177 -> 183 ;
184 [label="gini = 0.0000\nsamples = 2\nvalue = [ 0.  0.  0.  2.  0.  0.]", shape="box"] ;
174 -> 184 ;
185 [label="gini = 0.0000\nsamples = 3\nvalue = [ 0.  0.  0.  3.  0.  0.]", shape="box"] ;
173 -> 185 ;
186 [label="X[6] <= 66.0000\ngini = 0.43572778828\nsamples = 46", shape="box"] ;
172 -> 186 ;
187 [label="X[2] <= 0.0150\ngini = 0.326101249178\nsamples = 39", shape="box"] ;
186 -> 187 ;
188 [label="X[9] <= 0.7800\ngini = 0.48\nsamples = 5", shape="box"] ;
187 -> 188 ;
189 [label="gini = 0.0000\nsamples = 3\nvalue = [ 0.  0.  3.  0.  0.  0.]", shape="box"] ;
188 -> 189 ;
190 [label="gini = 0.0000\nsamples = 2\nvalue = [ 0.  0.  0.  2.  0.  0.]", shape="box"] ;
188 -> 190 ;
191 [label="X[2] <= 0.2350\ngini = 0.250865051903\nsamples = 34", shape="box"] ;
187 -> 191 ;
192 [label="gini = 0.0000\nsamples = 18\nvalue = [  0.   0.   0.  18.   0.   0.]", shape="box"] ;
191 -> 192 ;
193 [label="X[5] <= 11.5000\ngini = 0.4296875\nsamples = 16", shape="box"] ;
191 -> 193 ;
194 [label="X[3] <= 1.7000\ngini = 0.297520661157\nsamples = 11", shape="box"] ;
193 -> 194 ;
195 [label="gini = 0.0000\nsamples = 1\nvalue = [ 0.  0.  1.  0.  0.  0.]", shape="box"] ;
194 -> 195 ;
196 [label="X[1] <= 0.3750\ngini = 0.18\nsamples = 10", shape="box"] ;
194 -> 196 ;
197 [label="X[2] <= 0.4700\ngini = 0.5\nsamples = 2", shape="box"] ;
196 -> 197 ;
198 [label="gini = 0.0000\nsamples = 1\nvalue = [ 0.  0.  1.  0.  0.  0.]", shape="box"] ;
197 -> 198 ;
199 [label="gini = 0.0000\nsamples = 1\nvalue = [ 0.  0.  0.  1.  0.  0.]", shape="box"] ;
197 -> 199 ;
200 [label="gini = 0.0000\nsamples = 8\nvalue = [ 0.  0.  0.  8.  0.  0.]", shape="box"] ;
196 -> 200 ;
201 [label="X[3] <= 2.0500\ngini = 0.48\nsamples = 5", shape="box"] ;
193 -> 201 ;
202 [label="gini = 0.0000\nsamples = 2\nvalue = [ 0.  0.  0.  2.  0.  0.]", shape="box"] ;
201 -> 202 ;
203 [label="gini = 0.0000\nsamples = 3\nvalue = [ 0.  0.  3.  0.  0.  0.]", shape="box"] ;
201 -> 203 ;
204 [label="X[8] <= 2.9100\ngini = 0.448979591837\nsamples = 7", shape="box"] ;
186 -> 204 ;
205 [label="gini = 0.0000\nsamples = 1\nvalue = [ 0.  1.  0.  0.  0.  0.]", shape="box"] ;
204 -> 205 ;
206 [label="X[5] <= 33.5000\ngini = 0.277777777778\nsamples = 6", shape="box"] ;
204 -> 206 ;
207 [label="gini = 0.0000\nsamples = 5\nvalue = [ 0.  0.  5.  0.  0.  0.]", shape="box"] ;
206 -> 207 ;
208 [label="gini = 0.0000\nsamples = 1\nvalue = [ 0.  0.  0.  1.  0.  0.]", shape="box"] ;
206 -> 208 ;
209 [label="X[8] <= 3.4350\ngini = 0.587727987879\nsamples = 131", shape="box"] ;
115 -> 209 ;
210 [label="X[8] <= 3.0450\ngini = 0.572532699168\nsamples = 116", shape="box"] ;
209 -> 210 ;
211 [label="X[5] <= 18.5000\ngini = 0.444444444444\nsamples = 6", shape="box"] ;
210 -> 211 ;
212 [label="gini = 0.0000\nsamples = 4\nvalue = [ 0.  0.  4.  0.  0.  0.]", shape="box"] ;
211 -> 212 ;
213 [label="gini = 0.0000\nsamples = 2\nvalue = [ 0.  0.  0.  0.  2.  0.]", shape="box"] ;
211 -> 213 ;
214 [label="X[5] <= 12.5000\ngini = 0.55041322314\nsamples = 110", shape="box"] ;
210 -> 214 ;
215 [label="X[5] <= 8.5000\ngini = 0.615148019992\nsamples = 51", shape="box"] ;
214 -> 215 ;
216 [label="X[8] <= 3.3450\ngini = 0.501783590963\nsamples = 29", shape="box"] ;
215 -> 216 ;
217 [label="X[0] <= 12.0500\ngini = 0.309917355372\nsamples = 22", shape="box"] ;
216 -> 217 ;
218 [label="X[0] <= 7.4500\ngini = 0.18\nsamples = 20", shape="box"] ;
217 -> 218 ;
219 [label="gini = 0.0000\nsamples = 1\nvalue = [ 0.  0.  1.  0.  0.  0.]", shape="box"] ;
218 -> 219 ;
220 [label="X[7] <= 0.9987\ngini = 0.0997229916898\nsamples = 19", shape="box"] ;
218 -> 220 ;
221 [label="gini = 0.0000\nsamples = 17\nvalue = [  0.   0.   0.  17.   0.   0.]", shape="box"] ;
220 -> 221 ;
222 [label="X[9] <= 0.6800\ngini = 0.5\nsamples = 2", shape="box"] ;
220 -> 222 ;
223 [label="gini = 0.0000\nsamples = 1\nvalue = [ 0.  0.  1.  0.  0.  0.]", shape="box"] ;
222 -> 223 ;
224 [label="gini = 0.0000\nsamples = 1\nvalue = [ 0.  0.  0.  1.  0.  0.]", shape="box"] ;
222 -> 224 ;
225 [label="X[10] <= 10.2000\ngini = 0.5\nsamples = 2", shape="box"] ;
217 -> 225 ;
226 [label="gini = 0.0000\nsamples = 1\nvalue = [ 0.  0.  0.  0.  1.  0.]", shape="box"] ;
225 -> 226 ;
227 [label="gini = 0.0000\nsamples = 1\nvalue = [ 0.  0.  1.  0.  0.  0.]", shape="box"] ;
225 -> 227 ;
228 [label="X[9] <= 0.6850\ngini = 0.571428571429\nsamples = 7", shape="box"] ;
216 -> 228 ;
229 [label="X[4] <= 0.1680\ngini = 0.32\nsamples = 5", shape="box"] ;
228 -> 229 ;
230 [label="gini = 0.0000\nsamples = 4\nvalue = [ 0.  0.  4.  0.  0.  0.]", shape="box"] ;
229 -> 230 ;
231 [label="gini = 0.0000\nsamples = 1\nvalue = [ 0.  0.  0.  1.  0.  0.]", shape="box"] ;
229 -> 231 ;
232 [label="gini = 0.0000\nsamples = 2\nvalue = [ 0.  0.  0.  0.  2.  0.]", shape="box"] ;
228 -> 232 ;
233 [label="X[1] <= 0.6550\ngini = 0.599173553719\nsamples = 22", shape="box"] ;
215 -> 233 ;
234 [label="X[1] <= 0.5900\ngini = 0.666666666667\nsamples = 15", shape="box"] ;
233 -> 234 ;
235 [label="X[0] <= 7.8500\ngini = 0.625\nsamples = 12", shape="box"] ;
234 -> 235 ;
236 [label="gini = 0.0000\nsamples = 3\nvalue = [ 0.  0.  0.  0.  3.  0.]", shape="box"] ;
235 -> 236 ;
237 [label="X[9] <= 0.7600\ngini = 0.592592592593\nsamples = 9", shape="box"] ;
235 -> 237 ;
238 [label="X[0] <= 9.0500\ngini = 0.408163265306\nsamples = 7", shape="box"] ;
237 -> 238 ;
239 [label="X[0] <= 8.1500\ngini = 0.444444444444\nsamples = 3", shape="box"] ;
238 -> 239 ;
240 [label="gini = 0.0000\nsamples = 1\nvalue = [ 0.  0.  1.  0.  0.  0.]", shape="box"] ;
239 -> 240 ;
241 [label="gini = 0.0000\nsamples = 2\nvalue = [ 0.  0.  0.  2.  0.  0.]", shape="box"] ;
239 -> 241 ;
242 [label="gini = 0.0000\nsamples = 4\nvalue = [ 0.  0.  4.  0.  0.  0.]", shape="box"] ;
238 -> 242 ;
243 [label="gini = 0.0000\nsamples = 2\nvalue = [ 0.  0.  0.  0.  2.  0.]", shape="box"] ;
237 -> 243 ;
244 [label="gini = 0.0000\nsamples = 3\nvalue = [ 0.  0.  0.  3.  0.  0.]", shape="box"] ;
234 -> 244 ;
245 [label="gini = 0.0000\nsamples = 7\nvalue = [ 0.  0.  7.  0.  0.  0.]", shape="box"] ;
233 -> 245 ;
246 [label="X[4] <= 0.1215\ngini = 0.448721631715\nsamples = 59", shape="box"] ;
214 -> 246 ;
247 [label="X[6] <= 44.5000\ngini = 0.396045918367\nsamples = 56", shape="box"] ;
246 -> 247 ;
248 [label="X[6] <= 28.5000\ngini = 0.165289256198\nsamples = 22", shape="box"] ;
247 -> 248 ;
249 [label="X[4] <= 0.0680\ngini = 0.444444444444\nsamples = 6", shape="box"] ;
248 -> 249 ;
250 [label="gini = 0.0000\nsamples = 3\nvalue = [ 0.  0.  0.  3.  0.  0.]", shape="box"] ;
249 -> 250 ;
251 [label="X[3] <= 2.3000\ngini = 0.444444444444\nsamples = 3", shape="box"] ;
249 -> 251 ;
252 [label="gini = 0.0000\nsamples = 2\nvalue = [ 0.  0.  2.  0.  0.  0.]", shape="box"] ;
251 -> 252 ;
253 [label="gini = 0.0000\nsamples = 1\nvalue = [ 0.  0.  0.  1.  0.  0.]", shape="box"] ;
251 -> 253 ;
254 [label="gini = 0.0000\nsamples = 16\nvalue = [  0.   0.   0.  16.   0.   0.]", shape="box"] ;
248 -> 254 ;
255 [label="X[4] <= 0.0975\ngini = 0.503460207612\nsamples = 34", shape="box"] ;
247 -> 255 ;
256 [label="X[4] <= 0.0625\ngini = 0.470703125\nsamples = 32", shape="box"] ;
255 -> 256 ;
257 [label="X[3] <= 2.2000\ngini = 0.444444444444\nsamples = 3", shape="box"] ;
256 -> 257 ;
258 [label="gini = 0.0000\nsamples = 2\nvalue = [ 0.  0.  0.  0.  2.  0.]", shape="box"] ;
257 -> 258 ;
259 [label="gini = 0.0000\nsamples = 1\nvalue = [ 0.  0.  0.  1.  0.  0.]", shape="box"] ;
257 -> 259 ;
260 [label="X[4] <= 0.0720\ngini = 0.416171224732\nsamples = 29", shape="box"] ;
256 -> 260 ;
261 [label="X[9] <= 0.6100\ngini = 0.48\nsamples = 5", shape="box"] ;
260 -> 261 ;
262 [label="X[3] <= 2.0500\ngini = 0.444444444444\nsamples = 3", shape="box"] ;
261 -> 262 ;
263 [label="gini = 0.0000\nsamples = 1\nvalue = [ 0.  0.  1.  0.  0.  0.]", shape="box"] ;
262 -> 263 ;
264 [label="gini = 0.0000\nsamples = 2\nvalue = [ 0.  0.  0.  2.  0.  0.]", shape="box"] ;
262 -> 264 ;
265 [label="gini = 0.0000\nsamples = 2\nvalue = [ 0.  0.  2.  0.  0.  0.]", shape="box"] ;
261 -> 265 ;
266 [label="X[9] <= 0.5500\ngini = 0.34375\nsamples = 24", shape="box"] ;
260 -> 266 ;
267 [label="gini = 0.0000\nsamples = 2\nvalue = [ 0.  0.  2.  0.  0.  0.]", shape="box"] ;
266 -> 267 ;
268 [label="X[2] <= 0.1000\ngini = 0.243801652893\nsamples = 22", shape="box"] ;
266 -> 268 ;
269 [label="gini = 0.0000\nsamples = 1\nvalue = [ 0.  0.  1.  0.  0.  0.]", shape="box"] ;
268 -> 269 ;
270 [label="X[1] <= 0.3900\ngini = 0.176870748299\nsamples = 21", shape="box"] ;
268 -> 270 ;
271 [label="X[4] <= 0.0895\ngini = 0.5\nsamples = 2", shape="box"] ;
270 -> 271 ;
272 [label="gini = 0.0000\nsamples = 1\nvalue = [ 0.  0.  0.  1.  0.  0.]", shape="box"] ;
271 -> 272 ;
273 [label="gini = 0.0000\nsamples = 1\nvalue = [ 0.  0.  0.  0.  1.  0.]", shape="box"] ;
271 -> 273 ;
274 [label="X[2] <= 0.3150\ngini = 0.0997229916898\nsamples = 19", shape="box"] ;
270 -> 274 ;
275 [label="gini = 0.0000\nsamples = 16\nvalue = [  0.   0.   0.  16.   0.   0.]", shape="box"] ;
274 -> 275 ;
276 [label="X[5] <= 27.0000\ngini = 0.444444444444\nsamples = 3", shape="box"] ;
274 -> 276 ;
277 [label="gini = 0.0000\nsamples = 2\nvalue = [ 0.  0.  0.  2.  0.  0.]", shape="box"] ;
276 -> 277 ;
278 [label="gini = 0.0000\nsamples = 1\nvalue = [ 0.  0.  1.  0.  0.  0.]", shape="box"] ;
276 -> 278 ;
279 [label="gini = 0.0000\nsamples = 2\nvalue = [ 0.  0.  2.  0.  0.  0.]", shape="box"] ;
255 -> 279 ;
280 [label="X[10] <= 9.9500\ngini = 0.666666666667\nsamples = 3", shape="box"] ;
246 -> 280 ;
281 [label="X[5] <= 35.0000\ngini = 0.5\nsamples = 2", shape="box"] ;
280 -> 281 ;
282 [label="gini = 0.0000\nsamples = 1\nvalue = [ 1.  0.  0.  0.  0.  0.]", shape="box"] ;
281 -> 282 ;
283 [label="gini = 0.0000\nsamples = 1\nvalue = [ 0.  1.  0.  0.  0.  0.]", shape="box"] ;
281 -> 283 ;
284 [label="gini = 0.0000\nsamples = 1\nvalue = [ 0.  0.  1.  0.  0.  0.]", shape="box"] ;
280 -> 284 ;
285 [label="X[5] <= 11.5000\ngini = 0.417777777778\nsamples = 15", shape="box"] ;
209 -> 285 ;
286 [label="X[3] <= 1.9500\ngini = 0.375\nsamples = 4", shape="box"] ;
285 -> 286 ;
287 [label="gini = 0.0000\nsamples = 1\nvalue = [ 0.  0.  1.  0.  0.  0.]", shape="box"] ;
286 -> 287 ;
288 [label="gini = 0.0000\nsamples = 3\nvalue = [ 0.  0.  0.  3.  0.  0.]", shape="box"] ;
286 -> 288 ;
289 [label="X[6] <= 29.5000\ngini = 0.165289256198\nsamples = 11", shape="box"] ;
285 -> 289 ;
290 [label="X[0] <= 6.8000\ngini = 0.5\nsamples = 2", shape="box"] ;
289 -> 290 ;
291 [label="gini = 0.0000\nsamples = 1\nvalue = [ 0.  0.  1.  0.  0.  0.]", shape="box"] ;
290 -> 291 ;
292 [label="gini = 0.0000\nsamples = 1\nvalue = [ 0.  0.  0.  0.  1.  0.]", shape="box"] ;
290 -> 292 ;
293 [label="gini = 0.0000\nsamples = 9\nvalue = [ 0.  0.  9.  0.  0.  0.]", shape="box"] ;
289 -> 293 ;
294 [label="X[5] <= 7.0000\ngini = 0.354166666667\nsamples = 24", shape="box"] ;
108 -> 294 ;
295 [label="X[0] <= 6.4500\ngini = 0.625\nsamples = 4", shape="box"] ;
294 -> 295 ;
296 [label="gini = 0.0000\nsamples = 2\nvalue = [ 0.  2.  0.  0.  0.  0.]", shape="box"] ;
295 -> 296 ;
297 [label="X[7] <= 0.9972\ngini = 0.5\nsamples = 2", shape="box"] ;
295 -> 297 ;
298 [label="gini = 0.0000\nsamples = 1\nvalue = [ 1.  0.  0.  0.  0.  0.]", shape="box"] ;
297 -> 298 ;
299 [label="gini = 0.0000\nsamples = 1\nvalue = [ 0.  0.  0.  1.  0.  0.]", shape="box"] ;
297 -> 299 ;
300 [label="X[3] <= 3.0000\ngini = 0.095\nsamples = 20", shape="box"] ;
294 -> 300 ;
301 [label="gini = 0.0000\nsamples = 19\nvalue = [  0.   0.  19.   0.   0.   0.]", shape="box"] ;
300 -> 301 ;
302 [label="gini = 0.0000\nsamples = 1\nvalue = [ 0.  1.  0.  0.  0.  0.]", shape="box"] ;
300 -> 302 ;
303 [label="X[3] <= 14.6000\ngini = 0.338608879149\nsamples = 111", shape="box"] ;
63 -> 303 ;
304 [label="X[8] <= 2.9350\ngini = 0.320511741436\nsamples = 109", shape="box"] ;
303 -> 304 ;
305 [label="X[10] <= 9.8500\ngini = 0.375\nsamples = 4", shape="box"] ;
304 -> 305 ;
306 [label="gini = 0.0000\nsamples = 1\nvalue = [ 0.  0.  1.  0.  0.  0.]", shape="box"] ;
305 -> 306 ;
307 [label="gini = 0.0000\nsamples = 3\nvalue = [ 0.  0.  0.  3.  0.  0.]", shape="box"] ;
305 -> 307 ;
308 [label="X[7] <= 0.9962\ngini = 0.292607709751\nsamples = 105", shape="box"] ;
304 -> 308 ;
309 [label="X[7] <= 0.9958\ngini = 0.5\nsamples = 10", shape="box"] ;
308 -> 309 ;
310 [label="gini = 0.0000\nsamples = 4\nvalue = [ 0.  0.  4.  0.  0.  0.]", shape="box"] ;
309 -> 310 ;
311 [label="X[3] <= 1.7500\ngini = 0.277777777778\nsamples = 6", shape="box"] ;
309 -> 311 ;
312 [label="gini = 0.0000\nsamples = 1\nvalue = [ 0.  0.  1.  0.  0.  0.]", shape="box"] ;
311 -> 312 ;
313 [label="gini = 0.0000\nsamples = 5\nvalue = [ 0.  0.  0.  5.  0.  0.]", shape="box"] ;
311 -> 313 ;
314 [label="X[1] <= 0.3000\ngini = 0.243324099723\nsamples = 95", shape="box"] ;
308 -> 314 ;
315 [label="X[6] <= 131.5000\ngini = 0.5\nsamples = 2", shape="box"] ;
314 -> 315 ;
316 [label="gini = 0.0000\nsamples = 1\nvalue = [ 0.  0.  0.  0.  1.  0.]", shape="box"] ;
315 -> 316 ;
317 [label="gini = 0.0000\nsamples = 1\nvalue = [ 0.  0.  0.  1.  0.  0.]", shape="box"] ;
315 -> 317 ;
318 [label="X[3] <= 1.5500\ngini = 0.212741357382\nsamples = 93", shape="box"] ;
314 -> 318 ;
319 [label="gini = 0.0000\nsamples = 1\nvalue = [ 0.  1.  0.  0.  0.  0.]", shape="box"] ;
318 -> 319 ;
320 [label="X[6] <= 88.5000\ngini = 0.195888468809\nsamples = 92", shape="box"] ;
318 -> 320 ;
321 [label="X[4] <= 0.0735\ngini = 0.445\nsamples = 20", shape="box"] ;
320 -> 321 ;
322 [label="gini = 0.0000\nsamples = 1\nvalue = [ 0.  1.  0.  0.  0.  0.]", shape="box"] ;
321 -> 322 ;
323 [label="X[4] <= 0.0860\ngini = 0.387811634349\nsamples = 19", shape="box"] ;
321 -> 323 ;
324 [label="X[1] <= 0.4400\ngini = 0.473372781065\nsamples = 13", shape="box"] ;
323 -> 324 ;
325 [label="gini = 0.0000\nsamples = 2\nvalue = [ 0.  0.  0.  2.  0.  0.]", shape="box"] ;
324 -> 325 ;
326 [label="X[3] <= 2.2500\ngini = 0.396694214876\nsamples = 11", shape="box"] ;
324 -> 326 ;
327 [label="X[2] <= 0.2850\ngini = 0.444444444444\nsamples = 3", shape="box"] ;
326 -> 327 ;
328 [label="gini = 0.0000\nsamples = 2\nvalue = [ 0.  0.  0.  2.  0.  0.]", shape="box"] ;
327 -> 328 ;
329 [label="gini = 0.0000\nsamples = 1\nvalue = [ 0.  0.  1.  0.  0.  0.]", shape="box"] ;
327 -> 329 ;
330 [label="X[5] <= 23.5000\ngini = 0.21875\nsamples = 8", shape="box"] ;
326 -> 330 ;
331 [label="gini = 0.0000\nsamples = 7\nvalue = [ 0.  0.  7.  0.  0.  0.]", shape="box"] ;
330 -> 331 ;
332 [label="gini = 0.0000\nsamples = 1\nvalue = [ 0.  0.  0.  1.  0.  0.]", shape="box"] ;
330 -> 332 ;
333 [label="gini = 0.0000\nsamples = 6\nvalue = [ 0.  0.  6.  0.  0.  0.]", shape="box"] ;
323 -> 333 ;
334 [label="X[5] <= 9.5000\ngini = 0.104938271605\nsamples = 72", shape="box"] ;
320 -> 334 ;
335 [label="X[10] <= 9.9500\ngini = 0.5\nsamples = 2", shape="box"] ;
334 -> 335 ;
336 [label="gini = 0.0000\nsamples = 1\nvalue = [ 0.  0.  1.  0.  0.  0.]", shape="box"] ;
335 -> 336 ;
337 [label="gini = 0.0000\nsamples = 1\nvalue = [ 0.  0.  0.  1.  0.  0.]", shape="box"] ;
335 -> 337 ;
338 [label="X[4] <= 0.0670\ngini = 0.0820408163265\nsamples = 70", shape="box"] ;
334 -> 338 ;
339 [label="X[5] <= 28.5000\ngini = 0.5\nsamples = 2", shape="box"] ;
338 -> 339 ;
340 [label="gini = 0.0000\nsamples = 1\nvalue = [ 0.  0.  0.  1.  0.  0.]", shape="box"] ;
339 -> 340 ;
341 [label="gini = 0.0000\nsamples = 1\nvalue = [ 0.  0.  1.  0.  0.  0.]", shape="box"] ;
339 -> 341 ;
342 [label="X[6] <= 98.5000\ngini = 0.0570934256055\nsamples = 68", shape="box"] ;
338 -> 342 ;
343 [label="X[4] <= 0.0940\ngini = 0.197530864198\nsamples = 18", shape="box"] ;
342 -> 343 ;
344 [label="X[8] <= 3.3500\ngini = 0.48\nsamples = 5", shape="box"] ;
343 -> 344 ;
345 [label="gini = 0.0000\nsamples = 2\nvalue = [ 0.  0.  0.  2.  0.  0.]", shape="box"] ;
344 -> 345 ;
346 [label="gini = 0.0000\nsamples = 3\nvalue = [ 0.  0.  3.  0.  0.  0.]", shape="box"] ;
344 -> 346 ;
347 [label="gini = 0.0000\nsamples = 13\nvalue = [  0.   0.  13.   0.   0.   0.]", shape="box"] ;
343 -> 347 ;
348 [label="gini = 0.0000\nsamples = 50\nvalue = [  0.   0.  50.   0.   0.   0.]", shape="box"] ;
342 -> 348 ;
349 [label="gini = 0.0000\nsamples = 2\nvalue = [ 0.  0.  0.  2.  0.  0.]", shape="box"] ;
303 -> 349 ;
350 [label="X[1] <= 0.4250\ngini = 0.665123532256\nsamples = 429", shape="box"] ;
0 -> 350 ;
351 [label="X[9] <= 0.6950\ngini = 0.617621527778\nsamples = 192", shape="box"] ;
350 -> 351 ;
352 [label="X[10] <= 11.0500\ngini = 0.650081124932\nsamples = 86", shape="box"] ;
351 -> 352 ;
353 [label="X[8] <= 3.2250\ngini = 0.678200692042\nsamples = 17", shape="box"] ;
352 -> 353 ;
354 [label="X[8] <= 3.1300\ngini = 0.74\nsamples = 10", shape="box"] ;
353 -> 354 ;
355 [label="X[8] <= 3.0950\ngini = 0.48\nsamples = 5", shape="box"] ;
354 -> 355 ;
356 [label="gini = 0.0000\nsamples = 2\nvalue = [ 0.  0.  2.  0.  0.  0.]", shape="box"] ;
355 -> 356 ;
357 [label="gini = 0.0000\nsamples = 3\nvalue = [ 0.  0.  0.  3.  0.  0.]", shape="box"] ;
355 -> 357 ;
358 [label="X[6] <= 16.5000\ngini = 0.48\nsamples = 5", shape="box"] ;
354 -> 358 ;
359 [label="gini = 0.0000\nsamples = 2\nvalue = [ 0.  0.  0.  0.  0.  2.]", shape="box"] ;
358 -> 359 ;
360 [label="gini = 0.0000\nsamples = 3\nvalue = [ 0.  0.  0.  0.  3.  0.]", shape="box"] ;
358 -> 360 ;
361 [label="X[9] <= 0.5150\ngini = 0.244897959184\nsamples = 7", shape="box"] ;
353 -> 361 ;
362 [label="gini = 0.0000\nsamples = 1\nvalue = [ 0.  0.  0.  1.  0.  0.]", shape="box"] ;
361 -> 362 ;
363 [label="gini = 0.0000\nsamples = 6\nvalue = [ 0.  0.  6.  0.  0.  0.]", shape="box"] ;
361 -> 363 ;
364 [label="X[3] <= 4.6500\ngini = 0.581810544003\nsamples = 69", shape="box"] ;
352 -> 364 ;
365 [label="X[4] <= 0.1050\ngini = 0.549852190271\nsamples = 61", shape="box"] ;
364 -> 365 ;
366 [label="X[6] <= 14.0000\ngini = 0.581618655693\nsamples = 54", shape="box"] ;
365 -> 366 ;
367 [label="X[9] <= 0.5300\ngini = 0.543209876543\nsamples = 18", shape="box"] ;
366 -> 367 ;
368 [label="X[9] <= 0.4850\ngini = 0.32\nsamples = 5", shape="box"] ;
367 -> 368 ;
369 [label="gini = 0.0000\nsamples = 1\nvalue = [ 0.  0.  1.  0.  0.  0.]", shape="box"] ;
368 -> 369 ;
370 [label="gini = 0.0000\nsamples = 4\nvalue = [ 0.  0.  0.  4.  0.  0.]", shape="box"] ;
368 -> 370 ;
371 [label="X[1] <= 0.4000\ngini = 0.272189349112\nsamples = 13", shape="box"] ;
367 -> 371 ;
372 [label="X[6] <= 6.5000\ngini = 0.152777777778\nsamples = 12", shape="box"] ;
371 -> 372 ;
373 [label="gini = 0.0000\nsamples = 1\nvalue = [ 0.  0.  0.  1.  0.  0.]", shape="box"] ;
372 -> 373 ;
374 [label="gini = 0.0000\nsamples = 11\nvalue = [  0.   0.   0.   0.  11.   0.]", shape="box"] ;
372 -> 374 ;
375 [label="gini = 0.0000\nsamples = 1\nvalue = [ 0.  0.  0.  0.  0.  1.]", shape="box"] ;
371 -> 375 ;
376 [label="X[5] <= 22.5000\ngini = 0.5\nsamples = 36", shape="box"] ;
366 -> 376 ;
377 [label="X[3] <= 3.4500\ngini = 0.37585733882\nsamples = 27", shape="box"] ;
376 -> 377 ;
378 [label="X[6] <= 60.0000\ngini = 0.234404536862\nsamples = 23", shape="box"] ;
377 -> 378 ;
379 [label="X[2] <= 0.6650\ngini = 0.169421487603\nsamples = 22", shape="box"] ;
378 -> 379 ;
380 [label="X[9] <= 0.6850\ngini = 0.0907029478458\nsamples = 21", shape="box"] ;
379 -> 380 ;
381 [label="gini = 0.0000\nsamples = 19\nvalue = [  0.   0.   0.  19.   0.   0.]", shape="box"] ;
380 -> 381 ;
382 [label="X[10] <= 11.8500\ngini = 0.5\nsamples = 2", shape="box"] ;
380 -> 382 ;
383 [label="gini = 0.0000\nsamples = 1\nvalue = [ 0.  0.  0.  1.  0.  0.]", shape="box"] ;
382 -> 383 ;
384 [label="gini = 0.0000\nsamples = 1\nvalue = [ 0.  0.  0.  0.  0.  1.]", shape="box"] ;
382 -> 384 ;
385 [label="gini = 0.0000\nsamples = 1\nvalue = [ 0.  0.  1.  0.  0.  0.]", shape="box"] ;
379 -> 385 ;
386 [label="gini = 0.0000\nsamples = 1\nvalue = [ 0.  0.  1.  0.  0.  0.]", shape="box"] ;
378 -> 386 ;
387 [label="X[3] <= 4.4000\ngini = 0.375\nsamples = 4", shape="box"] ;
377 -> 387 ;
388 [label="gini = 0.0000\nsamples = 3\nvalue = [ 0.  0.  0.  0.  3.  0.]", shape="box"] ;
387 -> 388 ;
389 [label="gini = 0.0000\nsamples = 1\nvalue = [ 0.  0.  0.  1.  0.  0.]", shape="box"] ;
387 -> 389 ;
390 [label="X[3] <= 1.9500\ngini = 0.567901234568\nsamples = 9", shape="box"] ;
376 -> 390 ;
391 [label="X[0] <= 9.0000\ngini = 0.375\nsamples = 4", shape="box"] ;
390 -> 391 ;
392 [label="gini = 0.0000\nsamples = 3\nvalue = [ 0.  0.  0.  3.  0.  0.]", shape="box"] ;
391 -> 392 ;
393 [label="gini = 0.0000\nsamples = 1\nvalue = [ 0.  0.  0.  0.  0.  1.]", shape="box"] ;
391 -> 393 ;
394 [label="gini = 0.0000\nsamples = 5\nvalue = [ 0.  0.  0.  0.  5.  0.]", shape="box"] ;
390 -> 394 ;
395 [label="gini = 0.0000\nsamples = 7\nvalue = [ 0.  0.  0.  7.  0.  0.]", shape="box"] ;
365 -> 395 ;
396 [label="X[1] <= 0.3750\ngini = 0.21875\nsamples = 8", shape="box"] ;
364 -> 396 ;
397 [label="gini = 0.0000\nsamples = 6\nvalue = [ 0.  0.  0.  0.  6.  0.]", shape="box"] ;
396 -> 397 ;
398 [label="X[9] <= 0.5250\ngini = 0.5\nsamples = 2", shape="box"] ;
396 -> 398 ;
399 [label="gini = 0.0000\nsamples = 1\nvalue = [ 0.  0.  0.  0.  1.  0.]", shape="box"] ;
398 -> 399 ;
400 [label="gini = 0.0000\nsamples = 1\nvalue = [ 0.  1.  0.  0.  0.  0.]", shape="box"] ;
398 -> 400 ;
401 [label="X[6] <= 34.5000\ngini = 0.555179779281\nsamples = 106", shape="box"] ;
351 -> 401 ;
402 [label="X[7] <= 0.9953\ngini = 0.411203447215\nsamples = 57", shape="box"] ;
401 -> 402 ;
403 [label="X[10] <= 11.5000\ngini = 0.253968253968\nsamples = 21", shape="box"] ;
402 -> 403 ;
404 [label="X[8] <= 3.2600\ngini = 0.64\nsamples = 5", shape="box"] ;
403 -> 404 ;
405 [label="gini = 0.0000\nsamples = 2\nvalue = [ 0.  0.  0.  0.  0.  2.]", shape="box"] ;
404 -> 405 ;
406 [label="X[1] <= 0.2300\ngini = 0.444444444444\nsamples = 3", shape="box"] ;
404 -> 406 ;
407 [label="gini = 0.0000\nsamples = 1\nvalue = [ 0.  0.  1.  0.  0.  0.]", shape="box"] ;
406 -> 407 ;
408 [label="gini = 0.0000\nsamples = 2\nvalue = [ 0.  0.  0.  0.  2.  0.]", shape="box"] ;
406 -> 408 ;
409 [label="gini = 0.0000\nsamples = 16\nvalue = [  0.   0.   0.   0.  16.   0.]", shape="box"] ;
403 -> 409 ;
410 [label="X[2] <= 0.3450\ngini = 0.444444444444\nsamples = 36", shape="box"] ;
402 -> 410 ;
411 [label="gini = 0.0000\nsamples = 3\nvalue = [ 0.  0.  0.  3.  0.  0.]", shape="box"] ;
410 -> 411 ;
412 [label="X[5] <= 7.5000\ngini = 0.396694214876\nsamples = 33", shape="box"] ;
410 -> 412 ;
413 [label="X[1] <= 0.4100\ngini = 0.48\nsamples = 20", shape="box"] ;
412 -> 413 ;
414 [label="X[3] <= 2.0500\ngini = 0.415224913495\nsamples = 17", shape="box"] ;
413 -> 414 ;
415 [label="X[0] <= 10.4500\ngini = 0.444444444444\nsamples = 6", shape="box"] ;
414 -> 415 ;
416 [label="gini = 0.0000\nsamples = 4\nvalue = [ 0.  0.  0.  4.  0.  0.]", shape="box"] ;
415 -> 416 ;
417 [label="gini = 0.0000\nsamples = 2\nvalue = [ 0.  0.  0.  0.  2.  0.]", shape="box"] ;
415 -> 417 ;
418 [label="X[10] <= 10.8000\ngini = 0.165289256198\nsamples = 11", shape="box"] ;
414 -> 418 ;
419 [label="gini = 0.0000\nsamples = 1\nvalue = [ 0.  0.  0.  1.  0.  0.]", shape="box"] ;
418 -> 419 ;
420 [label="gini = 0.0000\nsamples = 10\nvalue = [  0.   0.   0.   0.  10.   0.]", shape="box"] ;
418 -> 420 ;
421 [label="gini = 0.0000\nsamples = 3\nvalue = [ 0.  0.  0.  3.  0.  0.]", shape="box"] ;
413 -> 421 ;
422 [label="X[5] <= 14.0000\ngini = 0.14201183432\nsamples = 13", shape="box"] ;
412 -> 422 ;
423 [label="gini = 0.0000\nsamples = 12\nvalue = [  0.   0.   0.   0.  12.   0.]", shape="box"] ;
422 -> 423 ;
424 [label="gini = 0.0000\nsamples = 1\nvalue = [ 0.  0.  0.  1.  0.  0.]", shape="box"] ;
422 -> 424 ;
425 [label="X[9] <= 0.8350\ngini = 0.617242815494\nsamples = 49", shape="box"] ;
401 -> 425 ;
426 [label="X[6] <= 79.5000\ngini = 0.544982698962\nsamples = 34", shape="box"] ;
425 -> 426 ;
427 [label="X[4] <= 0.0790\ngini = 0.497398543184\nsamples = 31", shape="box"] ;
426 -> 427 ;
428 [label="X[6] <= 57.0000\ngini = 0.5625\nsamples = 24", shape="box"] ;
427 -> 428 ;
429 [label="X[5] <= 13.5000\ngini = 0.546712802768\nsamples = 17", shape="box"] ;
428 -> 429 ;
430 [label="gini = 0.0000\nsamples = 3\nvalue = [ 0.  0.  0.  3.  0.  0.]", shape="box"] ;
429 -> 430 ;
431 [label="X[5] <= 22.0000\ngini = 0.5\nsamples = 14", shape="box"] ;
429 -> 431 ;
432 [label="X[8] <= 3.7150\ngini = 0.21875\nsamples = 8", shape="box"] ;
431 -> 432 ;
433 [label="gini = 0.0000\nsamples = 7\nvalue = [ 0.  0.  0.  0.  7.  0.]", shape="box"] ;
432 -> 433 ;
434 [label="gini = 0.0000\nsamples = 1\nvalue = [ 0.  0.  0.  0.  0.  1.]", shape="box"] ;
432 -> 434 ;
435 [label="X[2] <= 0.3900\ngini = 0.444444444444\nsamples = 6", shape="box"] ;
431 -> 435 ;
436 [label="gini = 0.0000\nsamples = 2\nvalue = [ 0.  0.  0.  0.  2.  0.]", shape="box"] ;
435 -> 436 ;
437 [label="gini = 0.0000\nsamples = 4\nvalue = [ 0.  0.  0.  4.  0.  0.]", shape="box"] ;
435 -> 437 ;
438 [label="X[10] <= 10.8000\ngini = 0.244897959184\nsamples = 7", shape="box"] ;
428 -> 438 ;
439 [label="gini = 0.0000\nsamples = 1\nvalue = [ 0.  0.  1.  0.  0.  0.]", shape="box"] ;
438 -> 439 ;
440 [label="gini = 0.0000\nsamples = 6\nvalue = [ 0.  0.  0.  6.  0.  0.]", shape="box"] ;
438 -> 440 ;
441 [label="gini = 0.0000\nsamples = 7\nvalue = [ 0.  0.  0.  7.  0.  0.]", shape="box"] ;
427 -> 441 ;
442 [label="X[9] <= 0.7750\ngini = 0.444444444444\nsamples = 3", shape="box"] ;
426 -> 442 ;
443 [label="gini = 0.0000\nsamples = 2\nvalue = [ 0.  0.  0.  0.  2.  0.]", shape="box"] ;
442 -> 443 ;
444 [label="gini = 0.0000\nsamples = 1\nvalue = [ 0.  0.  1.  0.  0.  0.]", shape="box"] ;
442 -> 444 ;
445 [label="X[3] <= 2.9000\ngini = 0.631111111111\nsamples = 15", shape="box"] ;
425 -> 445 ;
446 [label="X[9] <= 0.9250\ngini = 0.486111111111\nsamples = 12", shape="box"] ;
445 -> 446 ;
447 [label="X[1] <= 0.3700\ngini = 0.21875\nsamples = 8", shape="box"] ;
446 -> 447 ;
448 [label="gini = 0.0000\nsamples = 7\nvalue = [ 0.  0.  0.  0.  7.  0.]", shape="box"] ;
447 -> 448 ;
449 [label="gini = 0.0000\nsamples = 1\nvalue = [ 0.  0.  0.  1.  0.  0.]", shape="box"] ;
447 -> 449 ;
450 [label="X[6] <= 46.5000\ngini = 0.625\nsamples = 4", shape="box"] ;
446 -> 450 ;
451 [label="gini = 0.0000\nsamples = 2\nvalue = [ 0.  0.  0.  2.  0.  0.]", shape="box"] ;
450 -> 451 ;
452 [label="X[6] <= 57.0000\ngini = 0.5\nsamples = 2", shape="box"] ;
450 -> 452 ;
453 [label="gini = 0.0000\nsamples = 1\nvalue = [ 0.  0.  0.  0.  1.  0.]", shape="box"] ;
452 -> 453 ;
454 [label="gini = 0.0000\nsamples = 1\nvalue = [ 0.  0.  1.  0.  0.  0.]", shape="box"] ;
452 -> 454 ;
455 [label="X[2] <= 0.4900\ngini = 0.444444444444\nsamples = 3", shape="box"] ;
445 -> 455 ;
456 [label="gini = 0.0000\nsamples = 1\nvalue = [ 0.  0.  0.  0.  0.  1.]", shape="box"] ;
455 -> 456 ;
457 [label="gini = 0.0000\nsamples = 2\nvalue = [ 0.  0.  2.  0.  0.  0.]", shape="box"] ;
455 -> 457 ;
458 [label="X[9] <= 0.5850\ngini = 0.635119015827\nsamples = 237", shape="box"] ;
350 -> 458 ;
459 [label="X[5] <= 15.5000\ngini = 0.653735874515\nsamples = 77", shape="box"] ;
458 -> 459 ;
460 [label="X[2] <= 0.0300\ngini = 0.62414266118\nsamples = 54", shape="box"] ;
459 -> 460 ;
461 [label="X[6] <= 16.5000\ngini = 0.739669421488\nsamples = 22", shape="box"] ;
460 -> 461 ;
462 [label="X[6] <= 11.5000\ngini = 0.737777777778\nsamples = 15", shape="box"] ;
461 -> 462 ;
463 [label="X[1] <= 0.8000\ngini = 0.5\nsamples = 4", shape="box"] ;
462 -> 463 ;
464 [label="gini = 0.0000\nsamples = 2\nvalue = [ 0.  0.  0.  2.  0.  0.]", shape="box"] ;
463 -> 464 ;
465 [label="gini = 0.0000\nsamples = 2\nvalue = [ 2.  0.  0.  0.  0.  0.]", shape="box"] ;
463 -> 465 ;
466 [label="X[8] <= 3.4700\ngini = 0.611570247934\nsamples = 11", shape="box"] ;
462 -> 466 ;
467 [label="X[9] <= 0.5650\ngini = 0.56\nsamples = 5", shape="box"] ;
466 -> 467 ;
468 [label="X[5] <= 8.0000\ngini = 0.5\nsamples = 2", shape="box"] ;
467 -> 468 ;
469 [label="gini = 0.0000\nsamples = 1\nvalue = [ 0.  0.  1.  0.  0.  0.]", shape="box"] ;
468 -> 469 ;
470 [label="gini = 0.0000\nsamples = 1\nvalue = [ 0.  0.  0.  0.  1.  0.]", shape="box"] ;
468 -> 470 ;
471 [label="gini = 0.0000\nsamples = 3\nvalue = [ 0.  3.  0.  0.  0.  0.]", shape="box"] ;
467 -> 471 ;
472 [label="X[8] <= 3.5950\ngini = 0.277777777778\nsamples = 6", shape="box"] ;
466 -> 472 ;
473 [label="gini = 0.0000\nsamples = 5\nvalue = [ 0.  0.  5.  0.  0.  0.]", shape="box"] ;
472 -> 473 ;
474 [label="gini = 0.0000\nsamples = 1\nvalue = [ 1.  0.  0.  0.  0.  0.]", shape="box"] ;
472 -> 474 ;
475 [label="X[3] <= 3.3500\ngini = 0.244897959184\nsamples = 7", shape="box"] ;
461 -> 475 ;
476 [label="gini = 0.0000\nsamples = 6\nvalue = [ 0.  0.  0.  6.  0.  0.]", shape="box"] ;
475 -> 476 ;
477 [label="gini = 0.0000\nsamples = 1\nvalue = [ 0.  1.  0.  0.  0.  0.]", shape="box"] ;
475 -> 477 ;
478 [label="X[4] <= 0.1145\ngini = 0.439453125\nsamples = 32", shape="box"] ;
460 -> 478 ;
479 [label="X[6] <= 14.5000\ngini = 0.384444444444\nsamples = 30", shape="box"] ;
478 -> 479 ;
480 [label="X[10] <= 10.8500\ngini = 0.541666666667\nsamples = 12", shape="box"] ;
479 -> 480 ;
481 [label="gini = 0.0000\nsamples = 2\nvalue = [ 0.  0.  0.  2.  0.  0.]", shape="box"] ;
480 -> 481 ;
482 [label="X[10] <= 11.6500\ngini = 0.46\nsamples = 10", shape="box"] ;
480 -> 482 ;
483 [label="X[6] <= 10.0000\ngini = 0.244897959184\nsamples = 7", shape="box"] ;
482 -> 483 ;
484 [label="gini = 0.0000\nsamples = 1\nvalue = [ 0.  1.  0.  0.  0.  0.]", shape="box"] ;
483 -> 484 ;
485 [label="gini = 0.0000\nsamples = 6\nvalue = [ 0.  0.  6.  0.  0.  0.]", shape="box"] ;
483 -> 485 ;
486 [label="X[4] <= 0.0615\ngini = 0.444444444444\nsamples = 3", shape="box"] ;
482 -> 486 ;
487 [label="gini = 0.0000\nsamples = 1\nvalue = [ 0.  0.  1.  0.  0.  0.]", shape="box"] ;
486 -> 487 ;
488 [label="gini = 0.0000\nsamples = 2\nvalue = [ 0.  0.  0.  2.  0.  0.]", shape="box"] ;
486 -> 488 ;
489 [label="X[9] <= 0.4350\ngini = 0.197530864198\nsamples = 18", shape="box"] ;
479 -> 489 ;
490 [label="gini = 0.0000\nsamples = 1\nvalue = [ 0.  1.  0.  0.  0.  0.]", shape="box"] ;
489 -> 490 ;
491 [label="X[3] <= 3.3500\ngini = 0.110726643599\nsamples = 17", shape="box"] ;
489 -> 491 ;
492 [label="gini = 0.0000\nsamples = 15\nvalue = [  0.   0.  15.   0.   0.   0.]", shape="box"] ;
491 -> 492 ;
493 [label="X[7] <= 0.9955\ngini = 0.5\nsamples = 2", shape="box"] ;
491 -> 493 ;
494 [label="gini = 0.0000\nsamples = 1\nvalue = [ 0.  1.  0.  0.  0.  0.]", shape="box"] ;
493 -> 494 ;
495 [label="gini = 0.0000\nsamples = 1\nvalue = [ 0.  0.  1.  0.  0.  0.]", shape="box"] ;
493 -> 495 ;
496 [label="gini = 0.0000\nsamples = 2\nvalue = [ 0.  0.  0.  2.  0.  0.]", shape="box"] ;
478 -> 496 ;
497 [label="X[8] <= 3.4600\ngini = 0.563327032136\nsamples = 23", shape="box"] ;
459 -> 497 ;
498 [label="X[3] <= 2.7500\ngini = 0.152777777778\nsamples = 12", shape="box"] ;
497 -> 498 ;
499 [label="gini = 0.0000\nsamples = 11\nvalue = [  0.   0.   0.  11.   0.   0.]", shape="box"] ;
498 -> 499 ;
500 [label="gini = 0.0000\nsamples = 1\nvalue = [ 0.  0.  1.  0.  0.  0.]", shape="box"] ;
498 -> 500 ;
501 [label="X[7] <= 0.9941\ngini = 0.710743801653\nsamples = 11", shape="box"] ;
497 -> 501 ;
502 [label="gini = 0.0000\nsamples = 4\nvalue = [ 0.  0.  4.  0.  0.  0.]", shape="box"] ;
501 -> 502 ;
503 [label="X[9] <= 0.4950\ngini = 0.612244897959\nsamples = 7", shape="box"] ;
501 -> 503 ;
504 [label="gini = 0.0000\nsamples = 3\nvalue = [ 0.  0.  0.  3.  0.  0.]", shape="box"] ;
503 -> 504 ;
505 [label="X[1] <= 0.8600\ngini = 0.375\nsamples = 4", shape="box"] ;
503 -> 505 ;
506 [label="gini = 0.0000\nsamples = 1\nvalue = [ 0.  0.  0.  0.  1.  0.]", shape="box"] ;
505 -> 506 ;
507 [label="gini = 0.0000\nsamples = 3\nvalue = [ 0.  3.  0.  0.  0.  0.]", shape="box"] ;
505 -> 507 ;
508 [label="X[1] <= 0.9050\ngini = 0.563203125\nsamples = 160", shape="box"] ;
458 -> 508 ;
509 [label="X[9] <= 0.6850\ngini = 0.546959308694\nsamples = 157", shape="box"] ;
508 -> 509 ;
510 [label="X[6] <= 11.5000\ngini = 0.412541733198\nsamples = 83", shape="box"] ;
509 -> 510 ;
511 [label="X[5] <= 3.5000\ngini = 0.375\nsamples = 4", shape="box"] ;
510 -> 511 ;
512 [label="gini = 0.0000\nsamples = 3\nvalue = [ 0.  0.  0.  0.  3.  0.]", shape="box"] ;
511 -> 512 ;
513 [label="gini = 0.0000\nsamples = 1\nvalue = [ 0.  0.  0.  1.  0.  0.]", shape="box"] ;
511 -> 513 ;
514 [label="X[6] <= 95.5000\ngini = 0.378464989585\nsamples = 79", shape="box"] ;
510 -> 514 ;
515 [label="X[3] <= 5.5500\ngini = 0.326150474799\nsamples = 74", shape="box"] ;
514 -> 515 ;
516 [label="X[10] <= 10.5750\ngini = 0.309251266654\nsamples = 73", shape="box"] ;
515 -> 516 ;
517 [label="gini = 0.0000\nsamples = 1\nvalue = [ 0.  0.  0.  0.  1.  0.]", shape="box"] ;
516 -> 517 ;
518 [label="X[4] <= 0.1420\ngini = 0.291280864198\nsamples = 72", shape="box"] ;
516 -> 518 ;
519 [label="X[2] <= 0.2750\ngini = 0.274151953977\nsamples = 71", shape="box"] ;
518 -> 519 ;
520 [label="X[4] <= 0.1210\ngini = 0.170781893004\nsamples = 54", shape="box"] ;
519 -> 520 ;
521 [label="X[5] <= 41.0000\ngini = 0.14201183432\nsamples = 52", shape="box"] ;
520 -> 521 ;
522 [label="X[3] <= 1.9500\ngini = 0.1128\nsamples = 50", shape="box"] ;
521 -> 522 ;
523 [label="X[10] <= 10.9500\ngini = 0.336734693878\nsamples = 14", shape="box"] ;
522 -> 523 ;
524 [label="gini = 0.0000\nsamples = 8\nvalue = [ 0.  0.  0.  8.  0.  0.]", shape="box"] ;
523 -> 524 ;
525 [label="X[3] <= 1.4500\ngini = 0.5\nsamples = 6", shape="box"] ;
523 -> 525 ;
526 [label="gini = 0.0000\nsamples = 2\nvalue = [ 0.  0.  0.  2.  0.  0.]", shape="box"] ;
525 -> 526 ;
527 [label="X[9] <= 0.6350\ngini = 0.375\nsamples = 4", shape="box"] ;
525 -> 527 ;
528 [label="gini = 0.0000\nsamples = 3\nvalue = [ 0.  0.  3.  0.  0.  0.]", shape="box"] ;
527 -> 528 ;
529 [label="gini = 0.0000\nsamples = 1\nvalue = [ 0.  0.  0.  1.  0.  0.]", shape="box"] ;
527 -> 529 ;
530 [label="gini = 0.0000\nsamples = 36\nvalue = [  0.   0.   0.  36.   0.   0.]", shape="box"] ;
522 -> 530 ;
531 [label="X[10] <= 11.1000\ngini = 0.5\nsamples = 2", shape="box"] ;
521 -> 531 ;
532 [label="gini = 0.0000\nsamples = 1\nvalue = [ 0.  0.  1.  0.  0.  0.]", shape="box"] ;
531 -> 532 ;
533 [label="gini = 0.0000\nsamples = 1\nvalue = [ 0.  0.  0.  1.  0.  0.]", shape="box"] ;
531 -> 533 ;
534 [label="X[7] <= 0.9961\ngini = 0.5\nsamples = 2", shape="box"] ;
520 -> 534 ;
535 [label="gini = 0.0000\nsamples = 1\nvalue = [ 0.  0.  0.  1.  0.  0.]", shape="box"] ;
534 -> 535 ;
536 [label="gini = 0.0000\nsamples = 1\nvalue = [ 0.  1.  0.  0.  0.  0.]", shape="box"] ;
534 -> 536 ;
537 [label="X[2] <= 0.3800\ngini = 0.519031141869\nsamples = 17", shape="box"] ;
519 -> 537 ;
538 [label="X[6] <= 38.5000\ngini = 0.56\nsamples = 5", shape="box"] ;
537 -> 538 ;
539 [label="X[8] <= 3.3050\ngini = 0.5\nsamples = 2", shape="box"] ;
538 -> 539 ;
540 [label="gini = 0.0000\nsamples = 1\nvalue = [ 0.  0.  0.  1.  0.  0.]", shape="box"] ;
539 -> 540 ;
541 [label="gini = 0.0000\nsamples = 1\nvalue = [ 0.  0.  0.  0.  1.  0.]", shape="box"] ;
539 -> 541 ;
542 [label="gini = 0.0000\nsamples = 3\nvalue = [ 0.  0.  3.  0.  0.  0.]", shape="box"] ;
538 -> 542 ;
543 [label="X[6] <= 19.5000\ngini = 0.277777777778\nsamples = 12", shape="box"] ;
537 -> 543 ;
544 [label="gini = 0.0000\nsamples = 2\nvalue = [ 0.  0.  0.  0.  2.  0.]", shape="box"] ;
543 -> 544 ;
545 [label="gini = 0.0000\nsamples = 10\nvalue = [  0.   0.   0.  10.   0.   0.]", shape="box"] ;
543 -> 545 ;
546 [label="gini = 0.0000\nsamples = 1\nvalue = [ 0.  0.  1.  0.  0.  0.]", shape="box"] ;
518 -> 546 ;
547 [label="gini = 0.0000\nsamples = 1\nvalue = [ 0.  0.  0.  0.  1.  0.]", shape="box"] ;
515 -> 547 ;
548 [label="X[7] <= 0.9935\ngini = 0.56\nsamples = 5", shape="box"] ;
514 -> 548 ;
549 [label="X[9] <= 0.6100\ngini = 0.5\nsamples = 2", shape="box"] ;
548 -> 549 ;
550 [label="gini = 0.0000\nsamples = 1\nvalue = [ 0.  0.  0.  1.  0.  0.]", shape="box"] ;
549 -> 550 ;
551 [label="gini = 0.0000\nsamples = 1\nvalue = [ 0.  0.  0.  0.  1.  0.]", shape="box"] ;
549 -> 551 ;
552 [label="gini = 0.0000\nsamples = 3\nvalue = [ 0.  0.  3.  0.  0.  0.]", shape="box"] ;
548 -> 552 ;
553 [label="X[10] <= 11.9500\ngini = 0.638787436085\nsamples = 74", shape="box"] ;
509 -> 553 ;
554 [label="X[0] <= 12.4500\ngini = 0.579561042524\nsamples = 54", shape="box"] ;
553 -> 554 ;
555 [label="X[9] <= 0.7150\ngini = 0.552864282968\nsamples = 51", shape="box"] ;
554 -> 555 ;
556 [label="X[8] <= 3.3650\ngini = 0.657777777778\nsamples = 15", shape="box"] ;
555 -> 556 ;
557 [label="X[2] <= 0.3750\ngini = 0.5\nsamples = 8", shape="box"] ;
556 -> 557 ;
558 [label="X[10] <= 10.9500\ngini = 0.32\nsamples = 5", shape="box"] ;
557 -> 558 ;
559 [label="gini = 0.0000\nsamples = 4\nvalue = [ 0.  0.  4.  0.  0.  0.]", shape="box"] ;
558 -> 559 ;
560 [label="gini = 0.0000\nsamples = 1\nvalue = [ 0.  0.  0.  1.  0.  0.]", shape="box"] ;
558 -> 560 ;
561 [label="gini = 0.0000\nsamples = 3\nvalue = [ 0.  0.  0.  3.  0.  0.]", shape="box"] ;
557 -> 561 ;
562 [label="X[3] <= 2.1000\ngini = 0.244897959184\nsamples = 7", shape="box"] ;
556 -> 562 ;
563 [label="gini = 0.0000\nsamples = 1\nvalue = [ 0.  0.  1.  0.  0.  0.]", shape="box"] ;
562 -> 563 ;
564 [label="gini = 0.0000\nsamples = 6\nvalue = [ 0.  0.  0.  0.  6.  0.]", shape="box"] ;
562 -> 564 ;
565 [label="X[8] <= 3.3450\ngini = 0.405864197531\nsamples = 36", shape="box"] ;
555 -> 565 ;
566 [label="X[8] <= 3.3300\ngini = 0.570637119114\nsamples = 19", shape="box"] ;
565 -> 566 ;
567 [label="X[1] <= 0.4850\ngini = 0.4765625\nsamples = 16", shape="box"] ;
566 -> 567 ;
568 [label="X[6] <= 16.5000\ngini = 0.612244897959\nsamples = 7", shape="box"] ;
567 -> 568 ;
569 [label="gini = 0.0000\nsamples = 2\nvalue = [ 0.  0.  2.  0.  0.  0.]", shape="box"] ;
568 -> 569 ;
570 [label="X[7] <= 0.9952\ngini = 0.56\nsamples = 5", shape="box"] ;
568 -> 570 ;
571 [label="gini = 0.0000\nsamples = 1\nvalue = [ 0.  0.  1.  0.  0.  0.]", shape="box"] ;
570 -> 571 ;
572 [label="X[4] <= 0.0695\ngini = 0.375\nsamples = 4", shape="box"] ;
570 -> 572 ;
573 [label="gini = 0.0000\nsamples = 3\nvalue = [ 0.  0.  0.  3.  0.  0.]", shape="box"] ;
572 -> 573 ;
574 [label="gini = 0.0000\nsamples = 1\nvalue = [ 0.  0.  0.  0.  1.  0.]", shape="box"] ;
572 -> 574 ;
575 [label="X[8] <= 3.0350\ngini = 0.197530864198\nsamples = 9", shape="box"] ;
567 -> 575 ;
576 [label="gini = 0.0000\nsamples = 1\nvalue = [ 0.  0.  0.  0.  1.  0.]", shape="box"] ;
575 -> 576 ;
577 [label="gini = 0.0000\nsamples = 8\nvalue = [ 0.  0.  0.  8.  0.  0.]", shape="box"] ;
575 -> 577 ;
578 [label="gini = 0.0000\nsamples = 3\nvalue = [ 0.  0.  0.  0.  3.  0.]", shape="box"] ;
566 -> 578 ;
579 [label="X[10] <= 10.6500\ngini = 0.110726643599\nsamples = 17", shape="box"] ;
565 -> 579 ;
580 [label="X[4] <= 0.0730\ngini = 0.5\nsamples = 2", shape="box"] ;
579 -> 580 ;
581 [label="gini = 0.0000\nsamples = 1\nvalue = [ 0.  0.  1.  0.  0.  0.]", shape="box"] ;
580 -> 581 ;
582 [label="gini = 0.0000\nsamples = 1\nvalue = [ 0.  0.  0.  1.  0.  0.]", shape="box"] ;
580 -> 582 ;
583 [label="gini = 0.0000\nsamples = 15\nvalue = [  0.   0.   0.  15.   0.   0.]", shape="box"] ;
579 -> 583 ;
584 [label="gini = 0.0000\nsamples = 3\nvalue = [ 0.  0.  3.  0.  0.  0.]", shape="box"] ;
554 -> 584 ;
585 [label="X[6] <= 20.0000\ngini = 0.555\nsamples = 20", shape="box"] ;
553 -> 585 ;
586 [label="X[1] <= 0.5350\ngini = 0.5\nsamples = 4", shape="box"] ;
585 -> 586 ;
587 [label="gini = 0.0000\nsamples = 2\nvalue = [ 0.  0.  0.  2.  0.  0.]", shape="box"] ;
586 -> 587 ;
588 [label="gini = 0.0000\nsamples = 2\nvalue = [ 0.  0.  0.  0.  0.  2.]", shape="box"] ;
586 -> 588 ;
589 [label="X[7] <= 0.9913\ngini = 0.3984375\nsamples = 16", shape="box"] ;
585 -> 589 ;
590 [label="gini = 0.0000\nsamples = 1\nvalue = [ 0.  0.  0.  0.  0.  1.]", shape="box"] ;
589 -> 590 ;
591 [label="X[9] <= 0.9500\ngini = 0.32\nsamples = 15", shape="box"] ;
589 -> 591 ;
592 [label="X[5] <= 44.5000\ngini = 0.152777777778\nsamples = 12", shape="box"] ;
591 -> 592 ;
593 [label="gini = 0.0000\nsamples = 11\nvalue = [  0.   0.   0.   0.  11.   0.]", shape="box"] ;
592 -> 593 ;
594 [label="gini = 0.0000\nsamples = 1\nvalue = [ 0.  0.  0.  1.  0.  0.]", shape="box"] ;
592 -> 594 ;
595 [label="X[1] <= 0.4750\ngini = 0.444444444444\nsamples = 3", shape="box"] ;
591 -> 595 ;
596 [label="gini = 0.0000\nsamples = 1\nvalue = [ 0.  0.  0.  0.  1.  0.]", shape="box"] ;
595 -> 596 ;
597 [label="gini = 0.0000\nsamples = 2\nvalue = [ 0.  0.  0.  2.  0.  0.]", shape="box"] ;
595 -> 597 ;
598 [label="gini = 0.0000\nsamples = 3\nvalue = [ 0.  3.  0.  0.  0.  0.]", shape="box"] ;
508 -> 598 ;
}